-25 -11 5 18 20
-12 -9 -12 -3 24
23 -8 -47 -58 -32
9 23 20 -13 -13
-2 0 30 33 -1
-26 -40 -38 -18 -28
19 -5 -27 -32 -42
13 16 26 27 11
-1 0 11 13 15
0 -2 -10 -9 6
-11 -20 7 14 11
-38 -8 25 6 -20
-63 26 46 -12 -33
-23 44 50 -14 -26
19 39 26 -2 -2
-7 -30 -39 -27 4
-28 -19 10 16 21
-21 0 9 16 -21
5 17 23 -5 -4
18 33 14 22 8
2 -19 -32 0 38
15 -1 -33 -18 32
31 -2 -35 -18 38
23 -5 -43 0 33
7 -23 -11 36 32
1 -5 -9 -19 -35
3 13 -13 -15 -14
-5 19 -10 -21 -2
1 18 14 0 10
20 33 38 38 26
11 39 43 23 14
-9 -21 -16 -6 -1
2 -31 -32 -35 -28
-2 -3 -20 -2 3
-5 -1 -1 4 0
-1 -1 -19 -32 -16
8 23 2 -24 -16
4 9 21 -25 -27
-3 21 10 -13 -4
-3 11 13 5 -11
9 27 -4 -55 -41
-17 22 52 27 -51
-32 -24 36 47 -8
-29 -22 13 41 2
3 -12 -8 12 -4
-25 -2 -11 0 10
-15 37 0 -11 24
-10 34 -17 -13 23
15 27 -14 3 23
3 12 1 -1 6
10 4 7 -18 -15
-2 20 39 24 -2
-29 -22 14 39 18
-24 -27 -35 -1 9
-9 -22 -24 -21 -22
-4 -15 9 33 15
20 -27 -38 -10 -30
36 5 -35 -23 -17
24 7 12 3 0
5 13 6 -1 17
4 11 3 0 -7
-2 -1 -3 -2 -5
4 -11 -3 0 -4
-6 -14 2 2 -7
-10 5 5 5 -1
4 1 -8 -13 11
-13 -7 -12 -7 -3
-13 10 5 8 -12
-3 -5 -6 -9 4
-12 -1 10 -7 -1
-10 -6 16 -4 -9
2 15 11 3 5
1 6 6 -2 2
-10 -6 1 -4 -3
0 12 0 9 5
5 -14 2 -7 1
-6 -5 -4 -11 0
10 4 5 5 -9
10 -1 10 4 4
4 -3 -5 -1 -9
-2 8 6 8 -6
2 11 0 6 1
12 5 1 -6 13
8 9 9 12 -9
6 -6 7 9 -1
6 12 11 3 0
-4 0 -9 -2 11
14 3 7 9 9
3 -3 4 0 10
-7 -10 -11 -11 9
6 -7 -3 -13 -8
-3 -2 -7 9 10
7 0 8 5 -1
11 -6 -2 1 -3
6 -10 3 0 7
2 7 0 0 -8
-12 2 1 -8 6
0 -10 11 -11 -3
-5 -4 5 2 -8
-3 -8 -1 3 6
5 8 -8 4 2
-9 -14 2 9 -1
-2 -3 6 -6 -7
5 3 9 3 0
-10 7 -2 5 12
7 14 2 12 -4
10 14 -3 -5 9
-3 -10 8 6 -10
7 -3 2 -2 5
0 9 7 -12 11
-13 0 0 -4 8
7 2 5 -3 -9
-11 -1 -11 6 -3
11 -12 -3 5 1
1 -4 7 -9 -10
3 -4 6 13 -5
-10 3 2 -6 -4
8 3 8 -1 4
-11 -11 -8 0 3
3 -1 -11 -10 -6
-8 -17 8 14 13
6 -9 -15 4 2
18 -10 -19 -19 1
6 24 32 26 21
1 30 52 22 4
-10 -27 -21 -28 -13
2 3 12 -9 -17
27 24 16 22 15
6 0 12 0 25
9 5 -4 -19 -9
1 4 11 11 -3
1 8 3 -28 -17
-4 -13 -47 -25 -9
-12 -58 -16 2 -13
-39 -29 -6 4 -8
-9 -11 4 6 0
-6 12 21 6 -11
20 28 -13 -26 0
-4 -13 -24 8 16
-15 -15 -3 12 6
-15 1 -22 -13 8
12 -1 -27 -8 -1
-1 -20 0 0 -6
-21 -15 0 -8 -16
5 11 28 -1 -11
-11 -5 -7 -9 -3
0 5 -15 -9 12
-16 1 3 1 -11
-10 -2 11 0 -20
10 5 12 -5 -3
15 43 66 53 32
-7 -4 -6 -14 -5
-3 -9 -14 -3 -19
0 25 10 6 -8
18 7 14 -7 0
-5 -11 -7 -8 -11
-9 0 -3 2 -17
-1 -5 7 -19 -11
17 0 -12 -1 1
5 -16 -16 0 3
12 6 13 -21 -31
-16 17 7 1 -22
3 -28 -5 8 -15
18 -11 -9 -21 -12
8 21 -23 -17 3
10 -7 -11 1 -2
-10 -11 -13 -16 -3
-14 -22 7 -15 14
-22 0 0 -17 10
-12 -6 -1 -11 -3
1 -4 20 18 22
-9 20 33 14 10
-19 -17 12 19 9
-15 -25 -24 -2 15
14 5 9 5 4
-2 -3 -1 5 -16
-35 -28 -22 -15 -9
-4 13 6 -5 8
-8 -1 3 11 9
-15 -9 -12 16 13
7 10 11 3 10
2 12 -8 -7 -2
1 -2 4 10 -8
0 11 3 -12 2
-6 -3 11 -8 -5
-7 6 7 0 11
9 -12 0 5 11
-3 -12 0 3 -7
0 -11 -6 -2 7
-11 -10 6 10 -10
0 10 -10 1 -8
-4 5 -7 -3 1
-13 2 11 7 2
8 5 8 -9 0
3 -9 6 5 -8
-3 -11 12 4 9
1 -7 0 -1 -10
-2 -6 -12 -9 -4
10 1 -9 -6 10
7 11 -7 6 -1
-4 -4 8 11 0
-1 -5 9 -8 9
-9 3 8 -1 -3
12 9 0 -10 10
0 9 -6 -6 -10
10 -4 -12 8 -9
-6 -2 5 5 -10
-1 -10 -1 -9 -10
-7 8 -8 -7 -7
4 -7 -3 -11 -11
7 2 -12 6 0
2 -9 -6 -11 -6
-3 8 -3 3 -4
1 0 2 -8 2
-1 3 -4 -6 -4
-2 8 1 -7 -6
7 2 12 -2 8
-2 10 7 -3 6
10 -4 -11 11 -2
2 -6 -6 2 0
12 1 8 -5 -10
-2 -2 0 -9 3
-10 -7 -9 -12 3
9 8 5 -3 -1
6 -1 8 -4 5
-6 6 7 2 -12
7 10 -3 -8 9
5 -1 -5 8 -6
2 8 5 4 -7
-8 -12 -9 -10 6
8 -12 -1 0 -7
2 8 -4 -4 -12
4 -1 -5 9 -10
-3 11 -5 9 -8
-2 6 1 -12 2
11 -11 -2 5 10
5 -3 -4 6 -6
-12 -9 -5 -4 6
-11 -1 -9 0 9
-6 5 7 -3 3
