-1 -11 4 6 -14 -18 7 -9 -13 7 11 3 -4 1 13 -2 11 11 2 -4 6 -3 -11 -8 -22 2 4 -12 -13 7 7 -4 6 11 -2 -6 25 17 8 -7 24 12 -33 -2 1 -4 -22 -12 -3 -3 7 13 4 6 6 -19 7 8 -13 -3 10 -9 -15 -4 -1 -1 -7 0 -2 -11 12 16 -4 -2 3 10 -5 -15 -23 5 4 1 0 5 7 -13 -4 -11 2 13 15 -13 16 38 11 -32 -1 -4 5 11 6 5 4 -12 -8 -13 -20 -15 -3 -12 -2 11 2 7 8 2 -4 10 -4 12 -6 0 -13 0 0 -5 -5 1 -6 -3 13 22 -4 5 23 9 -4 8 -6 -10 7 4 -6 -17 3 10 13 6 3 -6 14 7 5 0 8 2 16 -7 -7 10 -12 -5 -2 22 -16 -11 8 1 -1 -6 -24 -11 1 11 6 -10 -2 7 12 4 -7 -9 6 -1 -10 1 6 -7 -11 0 -5 -18
15 4 -19 -22 -8 -27 -17 -18 16 -8 -8 18 -6 -20 -6 10 -5 -9 -7 -10 -2 -1 -4 -7 3 4 -17 4 21 18 -10 17 -20 -14 18 13 -11 -18 5 28 -14 14 30 -10 18 18 3 -12 0 0 14 12 -19 -4 -11 24 -3 -8 0 14 0 16 1 -12 -10 7 38 7 7 5 3 10 -3 -2 14 -11 0 5 13 -12 -15 -5 11 -3 10 -1 13 2 19 9 13 24 3 -9 7 4 -10 -14 -27 -13 4 -2 -7 -12 6 -6 -3 -4 -7 -6 3 0 1 6 10 2 0 4 20 -6 -4 -2 0 -6 -1 9 -3 2 0 22 5 -11 1 6 8 -1 2 -11 -10 -16 0 2 9 1 -8 0 -7 13 0 -7 -12 0 -15 7 15 3 -5 17 12 0 -7 -1 -4 -16 5 -12 -13 -6 -2 -15 -2 3 -15 -21 21 21 0 12 13 2 9 -2 -16 4 -3 6 -7 9 -6 9 10 8
4 0 13 0 19 3 11 -6 -30 -4 -5 26 -19 -4 10 27 18 17 0 -6 28 14 5 6 -1 -4 5 -2 -12 2 17 12 -10 0 0 3 -20 -22 -17 14 5 3 5 2 23 6 -17 -9 0 -12 -14 -22 5 -1 -14 6 3 36 21 23 -3 16 21 15 6 -12 -9 8 0 -9 25 12 -2 -10 -4 -11 -2 -2 -21 -9 15 7 -12 3 8 -10 -4 11 23 -14 6 15 0 27 15 16 8 6 6 1 21 6 -3 -23 4 0 -2 -14 -11 -5 -1 20 4 2 12 13 3 0 0 2 5 -5 0 -19 -8 -10 -15 -7 -8 14 25 26 -17 3 7 1 -31 -15 -15 -36 -4 3 2 -11 -11 -2 -5 -3 -17 -13 6 7 0 -8 6 -1 6 0 -1 -13 0 11 17 3 -4 0 -11 -22 -18 -19 12 21 8 -4 20 44 18 -1 0 13 0 2 -4 8 11 -12 4 6 0 6 1 7
6 1 12 -11 0 5 3 9 28 14 19 0 16 29 2 -2 21 16 5 -7 -4 -15 1 -3 7 -4 1 14 22 3 1 0 -19 -49 -17 18 -11 -9 1 0 -20 -26 -7 -6 -29 -28 -20 19 0 -13 -6 -8 3 3 13 16 6 -1 1 -1 4 -1 2 6 -1 2 0 25 -14 2 -21 -18 6 -4 -23 0 0 6 -9 15 -23 -22 6 14 -10 0 -4 -18 -3 -12 -11 10 0 9 5 -7 17 14 12 3 18 15 -4 -11 6 -1 6 7 10 -1 0 -8 7 3 11 1 0 -7 0 1 4 8 3 2 0 10 5 4 -4 5 16 31 -28 -20 -6 10 -7 -5 10 33 1 0 10 7 -6 -15 -16 4 0 -10 -8 -19 11 1 0 -15 2 -6 -1 1 8 7 -1 -3 8 5 -5 -6 2 23 16 -3 -8 8 -6 -26 -6 -10 -15 -13 0 -11 -21 0 10 6 16 8 19 9 -20 -16
-10 2 -39 -15 1 0 16 -7 1 8 -12 2 -12 -15 -16 4 -6 -19 -14 -23 -5 -4 -17 -15 0 17 8 -9 -8 -6 -4 11 6 6 25 37 4 10 -27 9 10 0 -1 1 3 10 31 4 3 0 -9 -7 13 20 -17 3 0 -18 -15 4 -15 0 -9 -7 15 15 18 27 9 2 3 -8 -1 2 8 -1 2 11 17 5 12 24 16 -15 29 8 4 12 -11 -7 -22 -14 4 -26 -32 7 -15 -20 -36 -16 -15 -20 -30 -17 17 20 8 9 1 16 8 8 0 8 7 1 5 6 -13 -1 0 -6 -8 -2 -2 9 -3 -11 34 29 0 -29 11 -7 -13 -10 9 5 -10 -20 -6 -10 1 11 9 14 31 30 1 0 16 -2 -12 -10 -1 4 -15 0 2 9 -4 -3 -16 -11 5 10 12 -6 0 13 8 -6 0 -12 -1 18 -2 -8 1 -8 -7 3 2 -10 0 18 6 -16 3 -6 3 23
-16 3 -6 12 2 3 -12 -2 24 15 5 8 5 8 19 -1 -13 2 10 4 1 10 8 18 8 -1 4 19 23 15 -11 2 5 24 -7 -44 -14 17 15 -25 -30 -19 -14 7 -9 -28 0 -2 -7 -2 -1 -13 -1 -6 -8 -21 -3 2 -5 -14 -6 -4 10 2 9 1 -14 -49 1 5 -15 -32 6 16 2 -9 -4 -7 17 15 0 10 6 -20 10 10 -14 2 6 -7 0 25 -9 17 12 -1 -14 -2 18 24 -8 -5 15 44 15 -4 10 2 19 7 -14 -19 -9 -7 -34 -22 2 6 0 6 -7 -4 23 23 -6 5 13 -5 9 -10 -24 -42 17 13 -8 3 1 8 15 16 1 1 5 -5 1 10 0 -14 -1 1 2 -9 -12 -9 -2 6 -3 -15 -11 8 -8 3 -4 -10 2 -1 4 31 12 0 0 7 6 -4 -21 -15 -8 9 8 -7 6 16 21 23 16 -16 4 6 9 0 -5 -10
-10 -12 11 26 -28 -11 17 16 -26 0 11 9 -15 -1 11 -6 -23 -22 -13 -6 -11 5 13 40 -7 -4 9 6 -5 0 13 -10 23 18 25 -8 21 17 2 -46 8 19 4 -5 -12 -5 -25 -9 -10 1 5 8 -4 0 21 14 7 -2 20 -2 -17 -13 -9 -3 20 4 6 -16 -10 5 -21 -15 3 6 4 9 0 0 -1 -5 -6 -2 -9 -4 3 13 6 8 -6 18 24 -13 -1 -1 8 -13 -3 -17 -11 4 -10 -17 3 17 -22 -2 -6 0 -20 -9 0 6 5 6 -6 -7 0 4 -5 1 0 -9 -1 11 -4 2 -5 -2 10 -23 -34 -12 -9 -4 -25 13 9 -4 19 6 16 14 2 5 -3 4 -3 -4 -1 6 -5 -6 13 -2 8 3 14 -9 -7 -3 -8 -32 -26 2 -6 -22 -4 0 4 -17 -10 -6 0 15 9 -9 1 9 14 16 -7 -8 15 7 -9 -8 0 2 -2 10 -2 -12
8 10 -11 -12 -10 -15 -3 8 -5 -21 -6 5 1 -33 -14 0 27 28 18 4 22 8 9 2 21 1 3 7 -5 -5 -4 -12 -10 -2 -4 11 -11 16 1 18 5 1 6 11 12 19 28 11 -7 -12 -8 4 -17 -8 0 2 -8 -1 13 -6 -5 3 5 10 -1 5 -3 14 5 0 26 0 -17 -4 -2 -4 -1 19 28 -15 7 11 -2 3 -12 -7 -4 26 -8 -4 -15 -16 5 -10 -24 -13 14 14 20 6 11 21 13 5 4 4 0 0 0 1 0 11 10 -1 6 9 6 0 6 -3 6 9 0 13 9 3 -3 7 17 7 5 -8 4 -8 4 0 -3 -2 -26 -17 -4 -5 -7 -5 5 -3 -1 -1 -11 -6 3 7 -5 -1 -12 8 -7 4 0 8 21 20 20 15 0 -2 -9 14 7 -15 -23 -6 -22 -25 -2 -4 11 8 2 -5 15 -5 -13 5 -5 -2 11 -1 5 -2 5 8
-3 4 1 7 27 28 2 14 1 -9 9 -13 5 19 8 -22 -7 -4 -4 7 -7 -2 -14 -17 -10 -6 -6 0 -17 -15 -6 0 9 8 -7 -14 -7 -2 0 -12 8 -2 -1 -8 28 8 -28 -16 8 26 -6 0 7 -16 -4 0 9 9 0 -10 27 16 -10 -23 -14 -21 -14 4 0 13 -19 -10 -2 17 -24 -17 0 5 -18 11 5 -16 -6 -2 -17 -4 21 -9 -2 -12 10 7 -15 5 21 16 8 1 -3 0 -10 -13 -1 -2 8 3 -5 23 -18 -19 -4 -5 4 -5 -14 -2 2 1 -15 -15 2 -5 -10 -4 -5 1 3 14 2 -3 -1 27 24 26 12 -11 4 26 6 15 9 1 2 16 5 10 9 1 -8 0 10 0 5 1 -7 -10 13 18 12 6 -8 6 -5 -3 20 11 3 -3 16 -6 -1 10 14 7 -20 -26 -16 -6 -7 -11 -16 0 14 -16 -16 -21 1 17 -27 -10 13 11
-13 -4 4 3 5 21 -6 -26 10 20 -25 -32 18 0 -7 9 -10 1 7 24 -23 -10 -10 -5 -13 3 2 -26 -2 22 -1 -7 22 -3 -21 -8 8 10 12 5 -18 -19 7 15 -19 0 25 12 6 33 11 14 7 -15 -11 -14 -20 -41 -13 16 -1 -5 -5 15 6 -16 -19 -26 1 -6 -9 27 -1 -4 11 20 2 1 25 17 -12 -4 -3 4 -4 1 -1 -15 3 4 -16 -12 14 -26 -12 18 -8 1 17 16 -2 -15 -8 -6 -11 22 18 -20 9 31 -2 -24 -6 -10 15 9 -1 5 1 14 -5 -3 4 0 -5 2 -3 -8 -28 -43 6 18 3 5 24 5 23 -5 0 -2 -10 3 -11 2 -1 3 -16 -12 3 11 -3 -5 4 1 -14 3 -13 -12 11 5 -12 -5 -6 19 16 14 8 -5 8 16 12 -13 -2 6 -11 -3 -5 -22 -27 -1 -2 10 -7 -1 -1 15 -23 -10 6 7 5 -3
